{
  "modelName": "risk-scoring-logreg",
  "modelVersion": "risk-scoring-logreg-1.0.0",
  "trainedAt": "2026-06-25T11:07:33Z",
  "framework": "scikit-learn LogisticRegression (multinomial)",
  "featureOrder": [
    "priority_urgent",
    "priority_high",
    "priority_low",
    "tier_vip",
    "escalate",
    "sentiment_negative",
    "category_sensitive",
    "category_operational",
    "prev_open_tickets",
    "confidence",
    "low_confidence",
    "outcome_unresolved",
    "duration_long",
    "high_term_count",
    "medium_term_count",
    "channel_voice"
  ],
  "classOrder": [
    "low",
    "medium",
    "high"
  ],
  "scaler": {
    "mean": [
      0.10563725490196078,
      0.20392156862745098,
      0.29754901960784313,
      0.1963235294117647,
      0.18284313725490195,
      0.25563725490196076,
      0.5553921568627451,
      0.22745098039215686,
      1.9762254901960785,
      0.6175566176470604,
      0.47009803921568627,
      0.5992647058823529,
      0.48504901960784313,
      0.49019607843137253,
      1.2536764705882353,
      0.3889705882352941
    ],
    "scale": [
      0.3073727790139133,
      0.4029113580875565,
      0.45718005264693845,
      0.3972160636367527,
      0.3865378693138622,
      0.4362188084071305,
      0.496922236328865,
      0.41918615424509637,
      1.4241177069581814,
      0.20930456097615838,
      0.49910507184484587,
      0.4900474652174813,
      0.4997764181964981,
      0.8259883923508248,
      1.2676639056475667,
      0.48751663532969725
    ]
  },
  "coefficients": [
    [
      -1.7274680816831118,
      -1.1374490981801537,
      1.048848350193141,
      -1.115964040600023,
      -1.136391649743249,
      -1.287761201066796,
      -1.1880972528593312,
      -0.6445257522125801,
      -1.6746717666759874,
      -0.06415659380198047,
      -1.4719081752647794,
      -1.1260541246308673,
      -0.5316022706160902,
      -1.2740101099217573,
      -0.9009223626943281,
      0.04188548200131357
    ],
    [
      -0.0078031910577630184,
      -0.05873876745801965,
      -0.06134856104022686,
      0.04860500118890246,
      0.045499801281830995,
      0.06900108783409395,
      0.0016006687543170784,
      -0.032074659137566644,
      -0.019709680950929263,
      -0.0340193753157211,
      0.05328038064077978,
      0.055506921390138554,
      0.0800321739154443,
      -0.014090436423635165,
      0.009585167180964266,
      0.014217607234016095
    ],
    [
      1.73527127274088,
      1.1961878656381753,
      -0.9874997891529127,
      1.0673590394111179,
      1.09089184846142,
      1.2187601132327048,
      1.1864965841050124,
      0.676600411350148,
      1.6943814476269152,
      0.09817596911770259,
      1.4186277946239962,
      1.0705472032407288,
      0.45157009670064663,
      1.2881005463453952,
      0.8913371955133648,
      -0.05610308923532899
    ]
  ],
  "intercepts": [
    -3.664044341094246,
    1.5966287289776528,
    2.067415612116587
  ],
  "calibration": {
    "method": "temperature",
    "temperature": 1.0446
  },
  "trainingRows": 4080,
  "calibrationRows": 720,
  "baselineDistribution": {
    "low": 0.0969,
    "medium": 0.3383,
    "high": 0.5648
  },
  "reviewThreshold": 0.6,
  "scoreWeights": {
    "low": 0.0,
    "medium": 0.5,
    "high": 1.0
  }
}